%YAML:1.0
---
model: !!opencv-object-detector-hog
   winSize: [ 64, 128 ]
   blockSize: [ 16, 16 ]
   blockStride: [ 8, 8 ]
   cellSize: [ 8, 8 ]
   nbins: 9
   derivAperture: 1
   winSigma: 4.
   histogramNormType: 0
   L2HysThreshold: 2.0000000000000001e-01
   gammaCorrection: 1
   nlevels: 64
   signedGradient: 0
   SVMDetector: [ 3.42844389e-02, 5.10602165e-03, -5.50023653e-03,
       1.03918426e-02, 5.07351663e-03, -8.31906218e-03, 4.12382651e-03,
       1.88111868e-02, 3.92082632e-02, 2.16574389e-02, 6.31788513e-03,
       2.05506068e-02, 3.30886580e-02, -3.57528939e-03, 1.11346063e-03,
       3.39144748e-03, 1.78633966e-02, 1.46023575e-02, 2.39674635e-02,
       2.43445020e-02, 1.73343420e-02, 2.18820274e-02, 1.70537848e-02,
       -2.94959144e-04, -3.36445263e-03, 4.51468769e-03, 5.29228477e-03,
       6.24206197e-03, 9.88005381e-03, 2.27154046e-02, 1.68292746e-02,
       -7.38702109e-03, 1.22878151e-02, 1.66074317e-02, 3.14059593e-02,
       -2.04136432e-03, 3.74107212e-02, 7.43920775e-03, 1.00063821e-02,
       1.14081353e-02, -1.40777202e-02, -5.70173259e-04, 1.01158107e-02,
       1.60840638e-02, 2.56779026e-02, 2.85412334e-02, 1.34687051e-02,
       1.48682762e-02, 2.16424409e-02, 1.80611573e-02, 4.20070766e-03,
       2.18653120e-02, 2.20374167e-02, 1.87613461e-02, 1.67791545e-02,
       -1.34404125e-02, 3.16861807e-03, -2.51284637e-03, -2.95630358e-02,
       5.22513269e-03, 1.65408980e-02, 2.39110794e-02, 1.08255688e-02,
       -8.19267798e-03, -1.70753822e-02, -4.34289221e-03, 1.65142342e-02,
       -3.70141864e-03, 1.72374246e-03, 9.82248317e-03, 7.21619884e-03,
       -5.76617429e-03, 1.39497807e-02, 3.47440573e-03, 1.26121100e-02,
       8.70143622e-03, 3.00780293e-02, 3.20475884e-02, 4.30482142e-02,
       2.12378055e-02, 1.80913955e-02, 1.99465714e-02, -6.02386147e-03,
       2.46357475e-03, -3.11151519e-03, 1.26066059e-02, 2.11853683e-02,
       1.44160585e-02, 1.85642075e-02, 1.50743779e-02, -1.43110156e-02,
       -2.14290689e-03, 1.82962772e-02, 6.45060884e-03, 1.09808128e-02,
       3.00586671e-02, 2.35683452e-02, -1.68373995e-03, -7.31330318e-03,
       -7.91858882e-03, -4.60364763e-03, -4.57804604e-03,
       -4.87797335e-03, -1.71860270e-02, 2.31238678e-02, 7.71838194e-03,
       1.01179052e-02, -3.37352790e-03, 3.62481922e-02, 1.38279535e-02,
       2.09628362e-02, 1.22341914e-02, 1.60463015e-03, -6.32025581e-03,
       -1.00474944e-02, 6.77271606e-03, 3.05576753e-02, 2.37490572e-02,
       7.00081838e-03, 1.89126544e-02, 5.67268627e-03, -6.83480222e-03,
       1.95150655e-02, 1.48647120e-02, 1.66042559e-02, 3.23038176e-02,
       5.54284826e-03, 1.18283567e-03, -9.73137387e-04, 6.56135206e-04,
       -2.36003809e-02, 2.10250542e-03, 5.84656605e-03, 1.85149368e-02,
       1.30319484e-02, 7.95643404e-03, 1.69874709e-02, 1.36900907e-02,
       2.75634229e-03, -8.06723442e-03, 3.20411511e-02, 4.74381912e-03,
       -3.26937879e-03, 1.29396878e-02, 3.30164582e-02, 1.24652730e-02,
       2.49418281e-02, 1.11757917e-02, 1.68091971e-02, 2.67897323e-02,
       1.90281011e-02, 1.49506796e-02, 3.20215598e-02, 8.32076557e-03,
       -7.90175516e-04, 3.31977708e-03, -1.22826034e-02, -6.46428321e-04,
       6.18250715e-03, 1.24585917e-02, 8.08866695e-03, -5.59507404e-03,
       1.42220864e-02, 1.69544369e-02, 2.40148958e-02, 2.35149208e-02,
       1.07317334e-02, 4.40950617e-02, 6.51906151e-03, -1.29335588e-02,
       1.42531376e-02, 1.67281162e-02, 1.61366519e-02, 6.08455855e-03,
       -2.29992364e-02, -3.52913490e-03, -1.38723655e-02,
       -1.75940003e-02, -5.04003651e-03, 4.56011714e-03, 2.50484198e-02,
       2.28294227e-02, 1.80922709e-02, -7.39203347e-03, 9.63006355e-03,
       7.11855711e-03, 3.57483104e-02, 1.34989973e-02, 9.68400855e-03,
       2.53869798e-02, 3.11076697e-02, 2.00119987e-02, 2.83711241e-03,
       -3.99734490e-02, -2.45653633e-02, 1.33738862e-02, -1.24616839e-03,
       9.48499143e-03, 2.72941049e-02, 3.54948416e-02, 2.13152654e-02,
       -2.49662623e-03, 4.82046325e-03, -1.73457023e-02, 9.36880056e-03,
       3.41004948e-03, -7.15056842e-04, 2.08594091e-02, 2.31274273e-02,
       1.55951604e-02, 1.34520391e-02, -3.04433051e-02, -2.12445669e-02,
       1.11021465e-02, 1.95730049e-02, -2.62466073e-03, 2.09022071e-02,
       3.84046771e-02, 2.27491800e-02, -1.15597956e-02, -3.56705263e-02,
       -2.56747827e-02, -6.17340719e-03, 5.59633772e-04, 2.89477576e-02,
       2.54876912e-02, 2.80425306e-02, 1.12924734e-02, -3.41426209e-02,
       -4.98358198e-02, -3.08220778e-02, -1.54616043e-03,
       -3.82359885e-03, 2.24738084e-02, 2.79941205e-02, 3.70119400e-02,
       3.14802974e-02, -1.00296328e-03, -2.72165029e-03, -9.33879614e-03,
       2.58805975e-02, 3.43046859e-02, 3.59720513e-02, 2.12437194e-02,
       1.53049845e-02, 5.13450569e-03, -2.75534485e-02, -3.52886431e-02,
       -1.94587838e-02, 1.16867051e-02, 2.26989761e-02, 1.31396502e-02,
       4.33196425e-02, 2.67679039e-02, 1.21805649e-02, -1.87879093e-02,
       -4.42990214e-02, -3.08523290e-02, 3.02968873e-03, 1.11273928e-02,
       4.05629799e-02, 2.14469191e-02, -6.45103445e-03, 7.39788450e-03,
       -1.11368094e-02, -3.83358486e-02, -1.23433899e-02,
       -2.36694817e-03, -8.28491524e-03, 3.03155798e-02, 4.18190770e-02,
       2.83777597e-03, 1.66287867e-03, -2.28427630e-02, -2.92407069e-02,
       -1.80202257e-02, 2.97594331e-02, 8.67556874e-03, 3.09557300e-02,
       2.54209712e-02, 1.24421641e-02, 1.15692597e-02, 1.83120333e-02,
       -1.13602858e-02, -1.01532321e-02, 9.87545587e-03, -1.47911767e-02,
       2.33505853e-02, 2.11905912e-02, 3.11753387e-03, 1.39344251e-02,
       4.87457449e-03, -2.90064961e-02, -1.77901110e-03, 9.90256388e-03,
       -1.11477496e-02, 1.66712217e-02, 9.60487407e-03, -3.72590986e-03,
       1.58049576e-02, -2.22978406e-02, -3.00635360e-02, 4.13029594e-03,
       7.34381750e-03, -3.44367465e-03, 1.17568439e-02, 3.76209281e-02,
       2.14502364e-02, 1.84636414e-02, 1.38047244e-02, -1.44955609e-02,
       5.55802695e-03, 1.25871412e-02, 5.57870697e-03, 4.71869633e-02,
       3.25124897e-02, -5.97794401e-03, -3.78930970e-04, -9.60992184e-03,
       -2.93264538e-02, 3.91826266e-03, 2.97812768e-03, 1.43783381e-02,
       4.93740402e-02, 1.57708849e-03, -2.53038667e-03, 2.84983367e-02,
       -2.16060951e-02, -1.20820161e-02, 1.24447895e-02, 1.57155562e-02,
       6.58264710e-03, 5.49356127e-03, -8.50315206e-03, 6.48664776e-03,
       2.36669481e-02, -2.06596181e-02, -1.61655303e-02, -1.90811120e-02,
       2.04274408e-03, 2.02669911e-02, 1.42260676e-03, 2.30691750e-02,
       1.83961131e-02, 3.87781709e-02, 3.94862471e-03, -3.79298627e-03,
       2.19033081e-02, 1.72170997e-02, 1.17081227e-02, 3.94844599e-02,
       1.00340694e-02, 3.42414640e-02, 2.41958704e-02, 6.41928054e-03,
       1.77845601e-02, -9.38528683e-03, 1.13054095e-02, 7.59459101e-03,
       1.24540078e-02, 7.74215488e-03, -3.54025606e-03, 1.33515606e-02,
       -1.45394774e-02, -1.27290338e-02, -1.61639750e-02,
       -9.13318992e-03, -6.71709236e-03, 6.92882109e-03, 1.23477457e-02,
       -5.96602506e-04, 1.18877022e-02, -3.17001925e-03, 9.93771828e-04,
       -2.51940191e-02, -2.51671225e-02, -2.59367619e-02, 1.85309513e-03,
       1.34182966e-03, 2.94347927e-02, 1.45362979e-02, 2.33362848e-03,
       1.15297968e-02, -3.23813874e-03, 2.99608824e-03, -9.15704574e-03,
       3.35601764e-03, -5.10068052e-03, 1.94955599e-02, 1.50447469e-02,
       -1.51608083e-02, 1.00149261e-02, -8.01826082e-03, -1.36745023e-03,
       -2.94078048e-03, 1.17821712e-02, 1.57696344e-02, -1.18284840e-02,
       -6.53862301e-03, -1.28882146e-02, 8.18810798e-03, -1.16684092e-02,
       3.65124242e-06, -1.16247013e-02, 2.28310339e-02, 2.23927256e-02,
       -1.15101309e-02, 4.02555277e-04, 5.01122652e-03, 6.20112894e-03,
       1.31934844e-02, 8.72647297e-03, -6.76832162e-03, 3.69879566e-02,
       4.97175800e-03, 2.23486722e-02, 2.88511999e-02, -3.82260163e-03,
       5.48155187e-03, -2.40906067e-02, 8.46861862e-03, 4.50458424e-03,
       4.74686763e-04, 1.91639513e-02, 2.77561750e-02, 3.85420211e-02,
       2.03363672e-02, 7.45827705e-03, -1.94650944e-02, -5.88959176e-03,
       3.72942101e-04, -6.21404545e-03, 3.09586115e-02, 1.44029390e-02,
       1.54125588e-02, 1.30178016e-02, 5.35516359e-04, 5.90863964e-03,
       -4.94833617e-03, -8.15244298e-03, 2.72606295e-02, 4.69604805e-02,
       2.03630701e-02, 1.61773078e-02, -9.19272657e-03, -3.62441577e-02,
       4.34313109e-03, 8.68135132e-03, 1.08770570e-02, 4.78923135e-02,
       2.96991318e-02, 3.70002501e-02, 3.83899771e-02, 2.21823808e-02,
       3.35317454e-03, -1.40255522e-02, -2.00289581e-02, -4.96451557e-03,
       6.34257961e-03, 5.11936247e-02, 4.33060080e-02, 3.47693637e-02,
       1.85317658e-02, -5.74286515e-03, -3.36932833e-03, -2.30241357e-03,
       9.72049683e-03, 2.84862239e-02, 3.58674452e-02, 1.83879416e-02,
       1.76002607e-02, 1.69562525e-03, -1.68258604e-02, -1.57026239e-02,
       -2.74588657e-03, 3.60779115e-03, 4.53079939e-02, 4.09511849e-03,
       2.52291304e-03, -3.50085716e-03, 6.55918056e-03, 9.83768236e-03,
       -1.80862076e-03, 1.68620385e-02, 1.01150097e-02, 2.24169455e-02,
       1.43105136e-02, 2.79136673e-02, 1.53573547e-02, 2.06426755e-02,
       -2.52161529e-02, -2.75379717e-02, -1.04971640e-02, 1.77694528e-04,
       9.62690264e-03, 1.33704171e-02, 3.26464139e-02, 4.43322072e-03,
       3.25565301e-02, 1.72728188e-02, 2.06938083e-03, 9.94400121e-03,
       5.12493250e-04, 3.86335813e-02, -1.68978106e-02, -4.95702215e-03,
       -6.64393045e-03, 2.18913890e-03, 2.19961535e-02, 1.35040991e-02,
       1.60443336e-02, 1.56027647e-02, 2.02664128e-03, 4.91990102e-03,
       7.24452198e-04, -8.65022372e-03, 1.48681765e-02, 3.69531624e-02,
       3.71874310e-02, 2.28894260e-02, 1.21244779e-02, 1.92019939e-02,
       1.20126046e-02, 1.64143723e-02, -4.19367990e-03, 1.53326821e-02,
       2.36476716e-02, 2.24093515e-02, 8.51353258e-03, 1.28298728e-02,
       3.07479426e-02, -5.77395083e-03, 1.99934859e-02, -1.87777693e-03,
       2.15807185e-02, 2.14411262e-02, 3.59724760e-02, 3.71228121e-02,
       1.86837390e-02, 1.52679728e-02, 6.11641780e-02, 5.44481538e-02,
       4.73192036e-02, 2.82793567e-02, 3.47782820e-02, 5.82341710e-03,
       5.10576135e-03, 6.27909787e-04, 2.34100521e-02, 2.56698150e-02,
       3.11496966e-02, 3.25689837e-02, 3.29256337e-03, -4.02460620e-03,
       7.28977565e-03, 1.78914368e-02, 2.89830472e-02, 7.10586691e-03,
       3.43284421e-02, 5.39702587e-02, 2.68802885e-02, 1.76508017e-02,
       1.07056955e-02, -6.36629434e-03, -8.59699305e-03, -1.16506284e-02,
       8.56075156e-03, 1.82859804e-02, 2.92418785e-02, 2.06832332e-03,
       -2.13192552e-02, -1.72523074e-02, -3.14738485e-03,
       -1.47621529e-02, -2.33537098e-03, 2.04171217e-03, 4.04123701e-02,
       1.53347477e-02, 1.65292080e-02, 2.82204570e-03, -1.41375018e-02,
       9.17325635e-03, 1.75491627e-02, 2.60937549e-02, 3.47407460e-02,
       1.12148933e-02, 8.69470648e-03, 2.56411061e-02, 1.87993627e-02,
       1.33408904e-02, -1.42009160e-03, -3.21289757e-03, -4.04102262e-03,
       -2.14370829e-03, 2.98179127e-02, 2.78361440e-02, 1.39216636e-03,
       -1.53760752e-02, -2.98250141e-03, 9.34461411e-03, 1.17265712e-03,
       1.91158205e-02, 1.44320326e-02, 9.36602056e-03, 1.99403223e-02,
       6.91013504e-03, -1.33977155e-05, 5.09111211e-03, -2.32257205e-03,
       -2.28920728e-02, -1.26503156e-02, -9.26654041e-03, 1.59013811e-02,
       1.20387897e-02, 3.46798971e-02, 2.86885127e-02, 3.53081860e-02,
       1.64849702e-02, 2.07052603e-02, -1.32081739e-04, 6.87951921e-03,
       1.90270524e-02, 9.34613310e-03, 3.82272224e-03, 9.71744768e-03,
       1.24662723e-02, 2.53600553e-02, 2.30612326e-02, 1.52385868e-02,
       1.57446004e-02, 9.65692475e-03, 1.85468122e-02, 1.52447335e-02,
       1.75634008e-02, 1.85829084e-02, 1.00094406e-03, -2.43466999e-03,
       -1.22565273e-02, 6.62790262e-04, -1.86687929e-03, -5.62924100e-03,
       -9.56221484e-03, -5.93336532e-03, -8.26366246e-03,
       -2.88115954e-03, 5.20815887e-03, 3.55675467e-03, -9.10718227e-05,
       1.34676239e-02, 8.17609299e-03, 9.81607474e-03, 4.97450819e-03,
       -2.03906968e-02, -2.80580920e-04, 1.84450876e-02, 2.31439713e-02,
       1.83301438e-02, 3.38697322e-02, 4.10607271e-02, 3.39357033e-02,
       8.46030749e-03, 9.63474158e-03, 4.58199829e-02, 3.64786051e-02,
       2.00686306e-02, 2.58742571e-02, 7.50455819e-03, -7.22913654e-04,
       -9.79578588e-03, -4.10652719e-03, -1.89549923e-02,
       -1.70141030e-02, 2.70652818e-03, 4.90511954e-03, -3.74639779e-03,
       1.94020886e-02, 2.23451219e-02, -4.20953846e-03, -2.14972980e-02,
       -2.12994008e-03, 6.92785438e-03, 1.76922940e-02, -5.80365770e-03,
       1.04075633e-02, 3.51794884e-02, 3.97488028e-02, 3.79730798e-02,
       1.58933923e-02, 1.56811513e-02, 3.30464877e-02, 2.29853969e-02,
       4.22297418e-03, 3.24209072e-02, 2.90738624e-02, 3.27178277e-02,
       2.00300086e-02, -2.63982210e-02, -6.18677679e-03, -1.74346212e-02,
       -7.61376042e-03, 4.65048430e-03, 2.25487985e-02, 4.38204920e-03,
       1.14370883e-02, 6.33039558e-03, -4.96268412e-03, 1.83936779e-03,
       1.53141553e-02, 1.12978066e-03, -2.01116484e-02, -9.63307277e-04,
       7.46004796e-03, 1.94287840e-02, -9.08291899e-03, -8.15350283e-03,
       2.19550659e-03, 6.76555233e-03, 1.29954866e-03, -5.94182359e-03,
       4.45732474e-03, 2.65926961e-02, 3.51666510e-02, 2.47195866e-02,
       -1.05923917e-02, 7.55766220e-03, -2.96481103e-02, 9.64526553e-03,
       1.74094103e-02, 2.52842624e-02, 1.88442506e-02, 2.29033120e-02,
       2.30923705e-02, 9.31105111e-03, -4.64002602e-03, -2.24098619e-02,
       9.40891076e-03, 3.15603726e-02, 2.67469361e-02, 2.41032373e-02,
       2.34207287e-02, 2.69483458e-02, 1.20538715e-02, 5.21687930e-03,
       -2.72673760e-02, 4.14881669e-03, -1.44552533e-03, 1.47122750e-02,
       -1.26210111e-03, 1.81459356e-02, 2.44544558e-02, 2.62185000e-02,
       -1.57542189e-03, -3.01161706e-02, -1.13824904e-02, 1.19864680e-02,
       1.53901987e-02, 1.32081686e-02, 3.00790966e-02, 2.15711556e-02,
       -2.86401308e-04, 1.01244738e-02, -1.25012232e-03, 1.67094674e-02,
       2.11598836e-02, 3.60077173e-02, 1.29120443e-02, 1.06871631e-02,
       1.34218647e-03, -2.56686024e-02, -1.40931541e-02, -1.03799524e-02,
       1.43821780e-02, 2.18281820e-02, 2.19515525e-02, -3.16041801e-03,
       3.61382514e-02, 2.96973921e-02, 1.71170942e-02, 2.73865554e-02,
       -1.42206298e-02, -7.26716500e-03, 1.50006823e-02, 1.27045829e-02,
       -9.43615567e-03, 2.12143995e-02, -6.90127164e-03, -1.61496028e-02,
       -1.92669069e-03, -5.61764464e-03, 5.80230914e-03, 1.74117144e-02,
       -1.53519702e-03, 1.71384979e-02, -6.18114194e-04, -6.45862799e-03,
       -9.26128775e-03, 5.77931060e-03, -8.31114873e-03, 5.34250028e-03,
       -4.09319997e-03, 1.12473229e-02, 7.55905965e-03, -5.74088050e-03,
       1.48935680e-04, 1.45071736e-02, 3.72847058e-02, -8.62686709e-03,
       3.42481839e-03, -5.29323751e-03, 9.28656571e-03, -4.17920901e-03,
       1.85757931e-02, -2.76505458e-03, -8.34243186e-03, 7.80596118e-03,
       -1.92387565e-03, 3.80551931e-03, 1.39885163e-02, -2.63524964e-03,
       2.44205222e-02, 3.31714489e-02, 6.44560903e-03, 9.04861465e-03,
       2.94844992e-02, 1.17403222e-03, 9.20231733e-03, 1.98412854e-02,
       1.55963050e-02, 7.17360713e-03, -7.20080279e-04, -1.23341559e-02,
       1.02414228e-02, 1.67472232e-02, 2.36783759e-03, 7.27578858e-03,
       1.11066801e-02, 2.79551428e-02, 2.22308841e-03, -2.30727624e-03,
       -1.78343710e-02, -1.07450932e-02, -1.76893808e-02,
       -1.82429224e-03, -4.48239874e-03, 6.35875668e-03, 3.27177346e-02,
       1.75215770e-02, 2.61640344e-02, 1.02569899e-02, 2.38426942e-02,
       2.12371200e-02, 2.17563268e-02, 1.73430257e-02, 2.36088205e-02,
       1.41525529e-02, -9.20320599e-05, -1.38736730e-02, -1.47265447e-02,
       -7.69058289e-03, -1.81100657e-03, 2.04686187e-02, 3.35055985e-03,
       1.67481340e-02, -5.07720094e-03, 1.30655582e-03, -7.09660759e-04,
       2.32671201e-02, 8.71194806e-03, -1.62652265e-02, 8.02160986e-03,
       1.04839681e-02, 1.09426016e-02, 2.96459273e-02, 5.76810818e-03,
       -1.10758247e-03, 6.82301074e-03, 1.53930113e-02, 1.66422781e-03,
       -3.14535829e-03, 1.49771273e-02, 1.36805149e-02, 8.53015296e-03,
       -1.98100582e-02, -8.11196025e-03, -1.50948735e-02,
       -5.59645053e-03, -5.32697095e-03, 2.62719840e-02, 2.28976700e-02,
       2.87500285e-02, 6.23804471e-03, -1.17998105e-02, -1.39885936e-02,
       -1.28514422e-02, -3.14393500e-03, -2.77046720e-03, 2.91473307e-02,
       1.73259433e-02, 3.22454646e-02, 8.48997943e-03, 2.08956394e-02,
       -1.10371225e-02, -8.61876365e-03, 7.76936021e-03, 6.15842640e-03,
       -1.00535210e-02, 2.62122048e-05, -8.57301522e-03, 1.64154619e-02,
       1.06012002e-02, -6.50063576e-03, -5.48293488e-03, -1.58714224e-02,
       1.11607616e-04, -3.26141380e-02, -1.26768276e-02, -7.31568970e-03,
       1.78702753e-02, 2.06832383e-02, -1.17459744e-02, -5.99617464e-03,
       -2.67961924e-03, 1.73841079e-03, 1.90156419e-03, 5.19519718e-03,
       6.66080834e-03, 1.78485531e-02, 1.83643214e-02, 1.06909769e-02,
       -2.67541525e-03, 1.54067180e-03, 2.00885981e-02, -1.90415680e-02,
       3.14701058e-04, -1.01963095e-02, 1.62136760e-02, 1.59354582e-02,
       6.49682153e-03, 2.94285305e-02, -1.70353688e-02, 7.30840396e-03,
       -2.98292041e-02, 6.10949798e-03, 4.48103854e-03, 2.26463042e-02,
       7.33540906e-03, 1.53202107e-02, 2.78958697e-02, -2.09471937e-02,
       -1.74487270e-02, -4.40361686e-02, -1.98829528e-02, 6.65514823e-03,
       3.24010663e-03, 3.08537241e-02, 3.11007835e-02, 1.99552476e-02,
       2.34758784e-03, 9.12009925e-03, -1.80203114e-02, 1.01496279e-02,
       5.37703373e-03, 2.22492814e-02, 1.14780758e-02, 3.31346202e-03,
       7.55508849e-03, -9.68818460e-03, -8.84599611e-03, -2.52169371e-02,
       1.79771404e-03, 2.56731976e-02, 3.09879705e-02, 3.76081206e-02,
       2.44621336e-02, 3.03914398e-02, 5.41867735e-03, -1.24341054e-02,
       -2.11350229e-02, -1.62142031e-02, 1.05357692e-02, 2.31348984e-02,
       3.86182033e-02, 1.26473084e-02, 1.48767168e-02, -7.59601835e-06,
       -1.74808744e-02, -1.97682586e-02, 5.00005065e-03, 2.49119084e-02,
       1.58247836e-02, 2.06680689e-02, 1.87157765e-02, 1.16498219e-02,
       1.09780149e-03, -1.80530474e-02, -1.05790263e-02, -6.74457895e-03,
       8.28972366e-03, 4.33227755e-02, 2.01799050e-02, -7.23217940e-03,
       2.82515143e-03, 6.06751628e-03, -6.66228542e-03, -9.49552003e-03,
       -4.47625574e-03, -1.02005778e-02, 2.35076919e-02, 1.48471361e-02,
       1.44921727e-02, 1.70888379e-02, 9.21261497e-03, -9.54387896e-03,
       -9.85506736e-03, 1.01175997e-02, 2.87079606e-02, 2.00420264e-02,
       2.52702609e-02, 3.22925337e-02, 1.42703706e-03, 1.28090540e-02,
       4.80766728e-04, -3.37598287e-03, -3.76380538e-03, 2.20591184e-02,
       4.05091867e-02, 3.00552752e-02, 2.39056745e-03, -1.07147507e-02,
       3.17395572e-03, -8.28030612e-03, 8.85176822e-04, -9.90207586e-03,
       -1.14212772e-02, 1.47764850e-02, 3.69884633e-02, 2.12492272e-02,
       5.88341663e-03, -1.89162884e-03, -1.07752290e-02, -8.19746032e-03,
       1.71965873e-03, -6.40420476e-03, 1.91871803e-02, 2.33234484e-02,
       2.70762667e-02, -9.24389437e-03, 1.27785595e-03, 1.47666084e-02,
       -1.48143526e-03, 1.52630880e-02, 2.51560993e-02, 5.21602705e-02,
       -1.47343427e-02, 2.27266494e-02, -6.49041031e-03, 8.17662384e-03,
       3.69582064e-02, 3.84035110e-02, 2.88805123e-02, 3.18114497e-02,
       1.87075231e-02, 1.82790291e-02, 3.06341723e-02, 1.78755708e-02,
       -1.51953269e-02, -9.71757621e-03, -1.49227036e-02, 1.27421999e-02,
       1.25565231e-02, 2.92418748e-02, -7.56415538e-03, 2.49008853e-02,
       1.83982626e-02, -5.67037985e-03, 6.41954085e-03, 2.24864576e-02,
       2.63403151e-02, 1.57884490e-02, 1.14326756e-02, 3.90412174e-02,
       3.89469080e-02, 2.02459469e-02, -1.09210284e-03, 1.67462919e-02,
       6.60904637e-03, -4.05825296e-04, -1.45779792e-02, 1.05802808e-02,
       2.45977007e-02, 1.82023942e-02, -1.81774748e-03, -2.06439085e-02,
       9.32819676e-03, 5.55733871e-03, -7.27770245e-03, -5.61205344e-03,
       1.95503235e-02, 1.97867751e-02, 7.78397825e-03, 6.99421437e-03,
       9.31900088e-03, 1.94062032e-02, 2.23133322e-02, 1.43306348e-02,
       -8.30923021e-03, -4.44596983e-04, 1.14888279e-03, -1.05007403e-02,
       -3.13314423e-02, -9.14674066e-03, 2.52760500e-02, 5.40164765e-03,
       4.69880970e-03, -1.67868065e-03, 7.18242116e-03, 1.87098756e-02,
       2.86984667e-02, -1.38690497e-03, -1.71769857e-02, 2.90155113e-02,
       1.93688348e-02, 2.22489540e-03, 5.57903014e-03, 1.75460055e-02,
       1.23395557e-02, 2.67097745e-02, 1.82786658e-02, -3.67440027e-03,
       1.40161170e-02, 1.01241516e-02, -1.45062199e-02, 5.59134176e-03,
       1.70402434e-02, -3.38134542e-03, -9.12287869e-05, -1.46856895e-02,
       -2.57831533e-03, 5.38028292e-02, 2.46766135e-02, -4.80016787e-03,
       -4.74401331e-03, 1.07680000e-02, -1.76788550e-02, 5.97476168e-03,
       2.11814214e-02, -6.47043763e-03, 3.19154635e-02, 2.11707391e-02,
       -1.10144708e-02, -1.58238709e-02, -4.34913766e-03, 1.10316491e-02,
       2.41898969e-02, 2.57477425e-02, 2.17688438e-02, 2.96075270e-02,
       9.30591766e-03, 2.30809744e-03, 3.16697662e-03, 8.33124761e-03,
       1.13055455e-02, 1.35631440e-02, 1.17272083e-02, 8.79689865e-03,
       4.31359652e-03, -1.33144332e-03, 1.67404599e-02, 1.19034108e-02,
       2.48643644e-02, -1.35775330e-03, 5.45482791e-04, 2.39440538e-02,
       -2.98678351e-04, 1.99792646e-02, 3.29985633e-03, -9.35623888e-03,
       -1.25417756e-02, 4.32720501e-03, 7.50683807e-03, -1.49317551e-02,
       -3.06508783e-03, -1.73499286e-02, -1.12385526e-02,
       -1.31493174e-02, 1.08274538e-02, 1.69009680e-03, 1.50776692e-02,
       3.38498168e-02, 1.90344919e-02, 4.17324081e-05, -8.77809431e-03,
       5.32188173e-03, 2.67101661e-03, 2.69456618e-02, 2.14905851e-02,
       3.93443145e-02, 2.74264570e-02, 8.42324831e-03, -2.37530489e-02,
       -3.60287651e-02, -1.44537017e-02, -1.40337404e-02, 2.06027497e-02,
       5.38414996e-03, 1.78563111e-02, -1.25725783e-04, -1.98008735e-02,
       -1.71087012e-02, -1.77470557e-02, 1.03447251e-02, 1.94751844e-02,
       2.10080370e-02, 4.16089222e-03, 1.87455807e-02, 1.89707917e-03,
       -1.35115264e-02, -1.70020219e-02, -2.48384736e-02,
       -1.20628700e-02, 3.51786660e-03, 2.26197448e-02, 7.18732504e-03,
       7.87989423e-03, 3.34826368e-03, 1.42951086e-02, 9.43952822e-04,
       -4.90940129e-03, 1.13161039e-02, 3.20905447e-03, 6.58238400e-03,
       -2.82828626e-03, -5.52590936e-03, 1.38352439e-02, 1.27117205e-02,
       -1.63422450e-02, -2.30413093e-03, 1.41748777e-02, 1.79616213e-02,
       2.50422172e-02, -1.55179040e-03, -6.06741710e-03, 3.19728674e-03,
       -2.45922059e-03, 1.33775675e-03, -7.58651458e-03, 5.47502004e-03,
       2.39126314e-03, 6.61451090e-03, -4.57524648e-03, 1.26734748e-02,
       -1.92594994e-03, -8.82332493e-03, 8.13988212e-04, -3.31987068e-03,
       4.00924153e-04, -7.35092303e-03, 2.24653613e-02, -8.75425246e-03,
       -1.03834306e-03, 3.60140018e-02, 1.75704807e-02, 2.12982483e-02,
       5.46137709e-03, 8.66718683e-03, -1.16272811e-02, 2.69023944e-02,
       3.85861122e-03, 1.95048451e-02, 1.30456211e-02, 2.13448014e-02,
       2.07377244e-02, -9.58216959e-04, -4.70470497e-03, -1.32102035e-02,
       1.49440970e-02, -4.29662148e-04, 1.71990208e-02, 3.25163901e-02,
       2.18143947e-02, 8.86184722e-03, -9.70822107e-03, -7.14534055e-03,
       -1.09611833e-02, 2.80994698e-02, 3.27490363e-03, 9.46363993e-03,
       2.27760635e-02, 2.27647573e-02, -1.12679098e-02, -1.87063050e-02,
       -1.22573469e-02, -2.32675753e-04, 9.13768820e-03, -9.27508064e-03,
       -3.33468546e-04, 4.87759151e-03, 3.00822351e-02, 1.82581488e-02,
       2.10702280e-03, 1.97231006e-02, 2.20630085e-03, 9.15421452e-03,
       -1.09863235e-02, -6.23501698e-03, 4.29906370e-03, 2.16871183e-02,
       1.27041852e-02, -1.13566564e-02, 1.05096111e-02, 6.25139161e-04,
       1.54117681e-02, 2.54180655e-02, 2.46234844e-03, 1.78256370e-02,
       1.36590321e-02, -9.38497204e-03, -3.45769688e-03, 1.01609351e-02,
       1.12878568e-02, 1.10939406e-02, -1.59055740e-02, -1.62988887e-04,
       -8.10884777e-03, 9.50746052e-03, 1.38904266e-02, -5.35388850e-03,
       -1.10946372e-02, 3.47467512e-03, 1.49836103e-02, -7.95376487e-03,
       -1.78772956e-02, 1.01536494e-02, 1.39032714e-02, -4.66408674e-03,
       -2.89092679e-02, -1.72430407e-02, -8.02127458e-03, 1.21311275e-02,
       3.97876985e-02, 2.35530660e-02, 3.36857140e-02, 2.04660464e-02,
       -4.42914292e-03, -2.07877364e-02, -1.31131290e-02,
       -8.69122893e-03, 1.38411298e-02, 3.19121145e-02, 5.05232215e-02,
       -1.78768714e-05, 5.00897504e-03, 1.37172844e-02, -2.68409029e-02,
       -9.91210528e-03, 1.01096334e-03, 2.24131923e-02, 5.44691132e-03,
       -3.87819507e-03, 1.33314459e-02, 1.72850024e-02, -2.17256765e-03,
       -1.91774797e-02, 3.82450904e-04, 5.41679421e-03, 8.81509949e-03,
       2.47968454e-02, 1.52989253e-02, 2.01325510e-02, 8.98664631e-03,
       6.12916250e-04, 3.15620936e-03, 1.23861292e-02, 1.95604376e-02,
       2.52124239e-02, 9.68556758e-03, 2.25167777e-02, 8.01113714e-03,
       -1.00733284e-02, -1.63503271e-02, -1.98935978e-02,
       -7.52273062e-03, 4.20381920e-03, 1.53021822e-02, 2.24991683e-02,
       1.37824169e-03, 2.05039904e-02, 4.08379436e-02, 6.77712495e-03,
       7.32932379e-03, 1.86086483e-02, 2.49728486e-02, -2.81598046e-03,
       -1.77859957e-03, 1.34126591e-02, 1.18677849e-02, 1.53041193e-02,
       -1.38518680e-02, -5.30399056e-03, -7.13891629e-03, 1.13272479e-04,
       -6.33653672e-03, -1.46988512e-03, -3.53100058e-03,
       -5.36499545e-03, -1.10790320e-02, -1.57391131e-02,
       -2.06168350e-02, -1.95272323e-02, 1.52168795e-02, 2.01431122e-02,
       3.01722717e-02, 1.49454921e-03, -1.75802205e-02, -1.26187382e-02,
       -2.33387817e-02, -7.86548853e-03, 8.84042773e-03, 3.64301726e-02,
       2.43334807e-02, 3.07729244e-02, 2.82751420e-03, 6.99732872e-03,
       8.43913853e-03, -8.69109295e-03, -5.53878490e-03, -8.64303875e-05,
       1.40704308e-02, -4.59574303e-03, 5.55180665e-03, 6.04462484e-03,
       2.22041598e-03, 2.69352663e-02, -1.57385487e-02, 7.15423282e-03,
       2.23427359e-02, 2.82531884e-02, 2.99245883e-02, 2.50501968e-02,
       1.51098259e-02, 5.47395274e-03, 2.05610506e-03, -2.19838284e-02,
       -5.51048107e-03, 1.09436968e-03, 1.90507118e-02, 2.68914364e-02,
       1.02579761e-02, 3.90313077e-03, 3.19789834e-02, 3.45497318e-02,
       -1.59621891e-02, -7.19323941e-03, 3.98677960e-03, -1.60154011e-02,
       -5.66759240e-03, -1.85022838e-02, 8.61465279e-03, 8.68842751e-03,
       2.26578712e-02, -2.08532792e-02, -3.35082458e-03, 3.79825290e-03,
       1.84473544e-02, 3.09700686e-02, 1.98018812e-02, 7.26012746e-03,
       5.97585598e-03, 9.69598722e-03, -2.24536788e-02, -2.04612804e-03,
       2.15564552e-03, -3.91950225e-03, -1.42460437e-02, -6.56039873e-03,
       -1.42912992e-04, 3.72341536e-02, 5.21058403e-02, 2.62503810e-02,
       1.66798513e-02, 6.61375560e-03, -1.06892884e-02, -1.86867062e-02,
       -1.36021208e-02, 2.02915817e-02, 1.77126303e-02, 1.28418515e-02,
       3.64901545e-03, 5.05239097e-03, -2.04758290e-02, -6.19782927e-03,
       -7.91468751e-03, 2.21199337e-02, 3.68624292e-02, 3.00974119e-02,
       2.93798987e-02, 7.71659939e-03, 1.89393386e-02, -4.38130600e-03,
       -7.26113329e-03, -1.27542149e-02, -8.49377131e-04, 1.83114707e-02,
       2.43178755e-02, 1.25429407e-02, 1.40041746e-02, 4.40456299e-03,
       -2.12723538e-02, 1.85992545e-03, 1.16883800e-03, 1.99492108e-02,
       2.69364957e-02, 1.02519123e-02, 1.32488469e-02, 1.40981162e-02,
       9.07266862e-04, -6.25596987e-03, -4.77836374e-03, 5.80920372e-03,
       1.00776553e-02, 2.09343117e-02, 5.24429744e-03, 3.05336993e-03,
       -8.15101527e-03, 1.12180393e-02, 2.81874575e-02, -5.30889863e-03,
       -1.51063986e-02, -3.21995392e-02, 5.33744600e-03, 1.95705220e-02,
       2.44298819e-02, 2.46096533e-02, 1.14100392e-03, -8.74344260e-03,
       4.04392194e-04, 1.30604077e-02, 3.68349929e-03, 1.58006493e-02,
       -4.37467679e-04, 9.42261610e-03, -2.21767463e-03, 1.88624691e-02,
       2.75530014e-02, -1.56146463e-03, -2.19362173e-02, -1.57003719e-02,
       -1.09626930e-02, 2.88054328e-02, 4.32557147e-03, -9.96912736e-03,
       1.90258659e-02, 1.63906980e-02, 3.90416686e-03, -1.38586992e-02,
       -1.70619842e-02, 1.78546160e-02, 4.65847477e-02, 3.15093249e-02,
       9.76171251e-03, 6.43930724e-03, -1.42108323e-02, -8.79657269e-03,
       1.66822952e-04, 4.54328302e-03, 3.49045955e-02, 1.10584171e-02,
       2.84346123e-03, -1.84923150e-02, 6.06361357e-03, 2.01248620e-02,
       1.68143329e-03, -7.90581293e-03, 2.97749974e-03, 7.00937584e-04,
       1.43851694e-02, 1.54428566e-02, -6.38579251e-03, 1.20365852e-02,
       1.12528983e-03, -1.59233026e-02, -6.66145375e-03, 1.13342740e-02,
       9.13509261e-03, 2.27001850e-02, 3.72756757e-02, 3.41389626e-02,
       1.38911288e-02, -6.03973353e-03, -2.59078275e-02, 2.17881612e-02,
       2.16938388e-02, 2.86178663e-02, -2.75958725e-03, 2.63410546e-02,
       2.77839657e-02, 1.80300362e-02, 3.94013943e-03, 7.31325941e-03,
       3.69447730e-02, 2.64382828e-02, 1.90135147e-02, 1.33463759e-02,
       4.36431319e-02, 1.55255357e-02, 2.54529472e-02, 1.58695485e-02,
       -3.13714445e-02, 7.05118896e-03, 1.45944115e-02, 7.03418069e-03,
       6.74596243e-03, 3.23147923e-02, 1.73259228e-02, 2.77810264e-02,
       2.90742535e-02, -1.30209643e-02, 2.86498014e-02, 1.80600621e-02,
       7.51807296e-04, 3.73649225e-02, 1.25678293e-02, 1.19887078e-02,
       5.11804828e-03, -4.32064431e-03, 3.23120476e-04, -3.43513768e-03,
       6.02922635e-04, 2.62628756e-02, 1.54331988e-02, -1.70020796e-02,
       -1.84958037e-02, 5.32684149e-03, 1.57581419e-02, 4.87458985e-03,
       5.07721165e-03, 4.64689266e-03, 1.92105137e-02, -2.75486913e-02,
       6.42323727e-03, 1.23205381e-02, -2.29289173e-03, 6.93012122e-03,
       1.53194822e-03, 7.13697821e-03, 4.66357963e-03, -1.06946407e-02,
       -2.08721627e-02, -5.19215828e-03, 1.66479852e-02, 2.57466976e-02,
       2.34373920e-02, 1.08181639e-02, 5.43505978e-03, 1.51278023e-02,
       -8.46946519e-03, 1.42817395e-02, -1.17723283e-03, -6.75699441e-03,
       1.63556580e-02, 4.11487445e-02, 1.44340936e-02, 2.80389190e-03,
       5.50894346e-03, 3.09895421e-03, -7.24025071e-03, 8.27570632e-03,
       1.34196905e-02, -2.30417605e-02, -1.75335305e-03, -2.96055945e-03,
       -2.34438870e-02, -2.35276259e-02, -2.24671862e-03,
       -2.32547242e-03, 2.64729769e-03, 1.74151380e-02, 3.06201149e-02,
       4.16251794e-02, 2.45351233e-02, 1.91354807e-02, 2.38662921e-02,
       1.30861551e-02, 3.26294149e-03, 3.38748172e-02, 1.27423042e-02,
       -6.81745401e-03, 2.40925397e-03, 1.08336669e-03, -1.45212570e-02,
       -6.89991191e-03, -2.45982711e-03, 2.81127635e-02, 1.59592163e-02,
       3.11102252e-02, -5.67747094e-03, -1.41911879e-02, -9.65257734e-03,
       -2.05533579e-03, 1.38545353e-02, 1.77031234e-02, 4.03750986e-02,
       -3.04633891e-03, 1.59142017e-02, -2.99991127e-02, -4.24158871e-02,
       -1.95454024e-02, 1.71114057e-02, 1.79643482e-02, 3.83860357e-02,
       3.36406119e-02, 3.30666490e-02, 2.60090232e-02, -9.09485389e-03,
       -6.62207045e-03, 8.92422255e-03, 2.83408840e-03, 8.50243121e-03,
       2.24408079e-02, 3.63070779e-02, 1.13472261e-03, 1.85255278e-02,
       9.90277622e-03, -1.73507370e-02, -4.02671751e-03, 1.10106990e-02,
       1.16353156e-02, 2.97746863e-02, 1.97576601e-02, -2.22126134e-02,
       -1.72255374e-03, -3.54520380e-02, -2.62571387e-02, 6.33756910e-03,
       8.80739465e-03, 4.55107260e-03, 2.85742562e-02, 4.98342467e-03,
       4.80427546e-03, 1.71446968e-02, -2.27504447e-02, -1.17473661e-04,
       1.08109489e-02, 8.67046881e-03, 3.41764186e-03, 1.45336548e-02,
       1.20808678e-02, -1.55921094e-03, 6.01797830e-03, 1.22558679e-02,
       -1.26395365e-02, 1.29699232e-02, 1.07961399e-02, 1.63582200e-03,
       3.14034373e-02, -3.35283199e-04, 1.28768943e-02, 9.49362759e-03,
       -7.14559108e-03, 1.05664982e-02, 2.59542204e-02, 1.31262494e-02,
       -5.51691453e-04, 7.12872855e-03, 1.15908412e-02, 1.78391836e-03,
       2.15758514e-02, -1.79085080e-02, 1.62754245e-02, 7.74897868e-03,
       1.03012510e-02, -1.81253743e-03, 1.65997427e-02, 5.39915916e-03,
       -8.95752385e-03, 1.81590188e-02, -1.35011943e-02, -1.33464783e-02,
       -2.05205325e-02, 1.31009556e-02, 6.12813607e-03, 5.18374797e-03,
       9.65790183e-04, 2.03173924e-02, 1.70903224e-02, -1.19267758e-02,
       2.96181757e-02, 1.56228347e-02, 1.59938578e-02, -1.15700252e-03,
       1.89018250e-03, -2.01121648e-03, -3.22146807e-03, 2.12623756e-02,
       -2.87685320e-02, -9.84238740e-03, -1.76823176e-02, 7.75174377e-03,
       9.51473042e-03, -6.82183588e-03, 2.60781366e-02, 1.01346476e-03,
       1.04657058e-02, -9.15892981e-03, -2.97414279e-03, -1.86721247e-03,
       2.48826016e-02, -5.87315485e-03, 9.90823284e-03, 3.40278670e-02,
       1.14698084e-02, -1.43225156e-02, -4.59097186e-03, 7.65782129e-03,
       1.16760805e-02, 1.40531939e-02, -9.01409518e-03, 2.31813174e-02,
       -3.49891349e-03, 9.76546144e-04, 9.06888396e-03, -1.84352789e-02,
       1.26504423e-02, 1.40286526e-02, 2.59649549e-02, 1.05811153e-02,
       9.27703269e-03, 1.09593057e-04, 7.71502079e-03, -4.35273210e-03,
       5.92781371e-03, 3.75199853e-03, 8.93528573e-03, 1.76525321e-02,
       -5.04533714e-03, 1.37584666e-02, 2.79087666e-02, -1.96458935e-03,
       -2.49790326e-02, -1.84612423e-02, 1.05462344e-02, 1.33472064e-03,
       -4.07040957e-03, -1.47112925e-02, 2.51218602e-02, 1.04418276e-02,
       9.72125866e-03, 1.25120943e-02, 8.81527923e-03, -1.46687599e-02,
       -9.17239860e-03, 6.70190528e-03, -4.70922003e-03, 1.07208146e-02,
       2.74955276e-02, 4.43132222e-03, 2.44522165e-03, 4.42653149e-03,
       2.21291464e-02, 5.37667470e-03, -9.31089837e-03, -1.07834898e-02,
       1.76283121e-02, 1.67969260e-02, 1.17574427e-02, 1.51085332e-02,
       1.58616062e-02, -1.20091513e-02, -1.87488571e-02, 6.28769724e-03,
       4.19942057e-03, 1.81593318e-02, 7.55856326e-03, -6.24128059e-03,
       1.08797206e-02, 5.98113053e-03, -9.39023029e-03, 4.88168886e-03,
       3.23849693e-02, 1.43903382e-02, 2.85419784e-02, 2.18226737e-03,
       4.68139816e-03, 5.84509596e-03, -1.19364448e-02, 1.85766944e-03,
       7.80440634e-03, 2.67260633e-02, 3.90217714e-02, 1.91493873e-02,
       2.89476686e-03, -1.41092120e-02, 1.34298280e-02, 1.05208205e-02,
       -1.77347921e-02, -7.01619219e-03, 2.92167217e-02, 3.26425321e-02,
       2.35694628e-02, 7.21090881e-04, -2.01480724e-02, 1.02138175e-02,
       -1.15697458e-02, -2.34856196e-02, -1.25283804e-02, 2.70456970e-02,
       2.73782052e-02, 1.07613802e-02, 1.28478706e-02, 3.60178053e-02,
       8.96173716e-03, -9.85537539e-04, 2.75545530e-02, 2.19283570e-02,
       2.98606930e-03, 1.72329824e-02, 1.46138715e-02, 1.55965267e-02,
       1.84472241e-02, -7.22588040e-03, -6.63614459e-03, 5.72331389e-03,
       4.79868287e-03, -1.89717626e-03, 5.83675271e-03, 6.26656553e-03,
       2.06714515e-02, 1.52208451e-02, 2.29588826e-04, -2.26901541e-03,
       2.03076117e-02, 1.88525319e-02, 1.83878150e-02, 1.84556644e-03,
       1.85468495e-02, 1.54816369e-02, 3.99681292e-02, -2.12580152e-03,
       -1.05126863e-02, -7.86041783e-04, 2.67205713e-03, 4.65827296e-03,
       -4.14606323e-03, 2.27608792e-02, 2.43435288e-03, 1.00337816e-02,
       -3.72400670e-03, -6.55457424e-03, 1.32377818e-02, 1.93773117e-02,
       -9.03720409e-03, 3.93411703e-03, 3.22422571e-03, 7.00403797e-03,
       1.52146248e-02, -1.24821821e-02, -2.73310486e-03, 1.56667121e-02,
       1.14799682e-02, 7.88760372e-03, 2.64414046e-02, 1.87695809e-02,
       5.93837257e-03, 3.05531509e-02, 1.46597149e-02, -5.96380932e-03,
       -1.26815075e-02, 9.07263625e-03, -5.94358146e-03, 8.02947953e-03,
       8.84749647e-03, -5.09179244e-03, 3.13607566e-02, 9.86934872e-04,
       2.97071459e-03, 1.25907157e-02, 5.01669664e-03, 4.53503476e-03,
       5.61834127e-03, -3.38462833e-03, 2.72527076e-02, 1.79207213e-02,
       6.06664596e-03, 2.47462955e-03, 1.33296372e-02, 5.14912000e-03,
       -2.72795116e-03, 8.70403741e-03, 2.56979130e-02, 1.39771113e-02,
       -8.79722554e-03, -1.16536599e-02, 7.71074044e-03, 2.31982116e-02,
       1.00082448e-02, -1.79501232e-02, -4.29655379e-03, 2.47279480e-02,
       1.14858001e-02, 3.64439748e-02, 1.99690722e-02, 1.25311017e-02,
       -8.09931383e-03, -1.64681021e-02, -3.08170710e-02,
       -2.53805909e-02, 1.07564637e-02, 2.31224322e-03, 9.99496784e-03,
       1.17929457e-02, 1.75246522e-02, 1.56917702e-02, -2.14800215e-03,
       -4.27754000e-02, -3.56238410e-02, 1.04454964e-04, 4.06666771e-02,
       1.20828468e-02, -4.83142212e-03, 2.27314085e-02, -1.34830587e-02,
       -7.59797171e-04, -5.95764956e-03, 1.36921110e-04, 3.04351021e-02,
       3.53881419e-02, 2.34066672e-03, -6.75617205e-03, 1.91425104e-02,
       -2.15922073e-02, 2.95806117e-03, 2.41764598e-02, 3.03542539e-02,
       1.54736741e-02, 5.43475850e-03, 1.16664553e-02, 1.97827611e-02,
       3.18839252e-02, 4.63808374e-03, -1.25942857e-03, -5.04436321e-04,
       -1.69959385e-02, 1.74412187e-02, 1.64679158e-02, 9.94898006e-03,
       1.74386450e-03, 2.18075514e-02, -1.01439515e-02, 4.91778413e-03,
       1.69167984e-02, 2.32124305e-03, -1.17337042e-02, 2.87836883e-02,
       3.14537669e-03, 4.29282198e-03, 3.40235839e-03, -1.16035799e-02,
       9.01712757e-03, 2.61654668e-02, 2.79928707e-02, 3.23305614e-02,
       5.16674807e-03, 1.29582116e-03, -1.48117905e-02, 5.68216946e-03,
       2.89655360e-03, -7.82009587e-03, -3.28966044e-02, -3.09731602e-03,
       -7.91427493e-03, 1.64640732e-02, 7.83476047e-03, -1.34632317e-02,
       4.24030609e-03, 5.52673917e-03, 3.28238751e-03, 1.18516674e-02,
       1.10764802e-02, 2.06696503e-02, 2.04516016e-03, 1.66082792e-02,
       -6.35956926e-03, 2.03279331e-02, 2.53909570e-03, 1.01064621e-02,
       -1.41307933e-03, -6.68248208e-03, 4.19938145e-03, 3.56002944e-03,
       3.98178771e-03, -1.51798436e-02, 2.08107661e-03, 1.60966758e-02,
       -6.00360800e-03, -1.11950422e-02, 1.41928913e-02, -1.05663184e-02,
       2.33406387e-02, 2.42474377e-02, -9.81351919e-03, 9.95431468e-03,
       3.18383351e-02, -1.21901380e-02, -3.02720652e-03, 1.78481694e-02,
       1.36595871e-02, 1.54471127e-02, 1.99662019e-02, -1.06370496e-02,
       -5.00977319e-03, -2.83309887e-03, 6.61988743e-03, 3.85103142e-03,
       6.36126334e-03, 7.85019016e-04, 2.23580692e-02, 1.79775804e-02,
       -6.95051160e-03, -5.63480938e-03, 1.25008607e-02, -2.68955971e-03,
       -5.27164899e-03, 2.21922994e-02, 7.01712735e-04, 2.98312381e-02,
       4.70477939e-02, 8.14429484e-03, 9.85766016e-03, 2.33038105e-02,
       -1.87290628e-02, 7.75107695e-03, 2.64328271e-02, 2.16452423e-02,
       8.80246144e-03, 2.41085403e-02, -5.45346970e-03, 1.14790453e-02,
       1.76693648e-02, -1.88305415e-02, 2.08986383e-02, 1.76765565e-02,
       1.48742013e-02, 2.83589289e-02, 2.76422575e-02, 2.41066404e-02,
       6.35375222e-03, 3.27416062e-02, -2.07932256e-02, -9.73601174e-03,
       2.05943100e-02, 9.77013540e-03, -1.59795818e-04, 2.93115973e-02,
       2.06963476e-02, 9.26069729e-03, 2.14720927e-02, -4.17200103e-02,
       8.93300492e-03, 8.65361188e-03, -1.11206351e-02, -3.20679843e-02,
       2.17974233e-03, 1.49235399e-02, 4.34174901e-03, 6.66137971e-03,
       1.07751403e-03, 2.61675008e-02, 2.90188324e-02, -3.74749093e-03,
       -2.14770250e-02, 7.67683284e-03, 3.71740609e-02, 2.31972560e-02,
       2.08551269e-02, 1.23272194e-02, 1.70570593e-02, 8.10008869e-03,
       4.01959103e-03, -3.69549775e-03, -6.08621677e-03, -6.73163682e-04,
       9.24624223e-03, 1.00524956e-02, 2.02287175e-02, 2.68034339e-02,
       3.43225636e-02, 2.41847131e-02, 8.94132536e-03, 5.00043528e-03,
       6.15486468e-04, 1.21495007e-02, 1.70440264e-02, 1.23453345e-02,
       2.47009546e-02, 1.78865287e-02, 1.60918701e-02, -4.56613488e-03,
       1.65202469e-02, 2.96441410e-02, 2.69631930e-02, 1.24565409e-02,
       8.81077349e-03, 1.82274282e-02, 7.84019567e-03, 1.50144519e-02,
       7.26947607e-03, 3.50302607e-02, 3.75893936e-02, 1.55601390e-02,
       -1.40377479e-02, -1.36529692e-02, -1.10770334e-02,
       -5.83317783e-03, 1.15669025e-02, 8.74915067e-03, 1.52175603e-02,
       7.41633493e-03, 1.84120610e-02, 2.15789266e-02, 3.03330319e-03,
       7.43438257e-03, -6.77955477e-03, 1.88764967e-02, 2.12078728e-02,
       1.26615381e-02, 4.47523482e-02, 2.97910534e-02, 1.27074709e-02,
       -1.71960071e-02, 2.26584985e-03, -7.89309293e-03, 2.48667058e-02,
       9.20247752e-03, 6.26608077e-03, 1.81169752e-02, -6.02071406e-03,
       -8.77455808e-03, 4.62047150e-03, 2.89642927e-03, 3.40640382e-03,
       5.84924174e-03, 2.68004462e-02, 2.12682527e-03, 7.20959809e-03,
       1.49254557e-02, 9.70793050e-03, 9.77941137e-03, 1.88038927e-02,
       1.11942003e-02, 1.62880346e-02, 1.53992604e-02, 9.96649452e-03,
       3.75437513e-02, 7.11478340e-03, 3.13691655e-03, 1.70253031e-02,
       1.68150552e-02, 4.17450489e-03, 2.87791323e-02, 3.17192897e-02,
       4.89778398e-03, 4.23506973e-03, 3.86009458e-03, 8.33952520e-03,
       1.09193753e-02, 1.49158873e-02, 1.21124554e-02, 3.35027091e-02,
       1.05506973e-02, 1.41217476e-02, 8.82020779e-03, 2.47588195e-02,
       2.85932026e-03, 1.71916764e-02, 1.92127693e-02, 1.33341393e-02,
       2.66992077e-02, -2.24408880e-03, 1.88342538e-02, 3.49525770e-04,
       -5.01497323e-03, -1.65727101e-02, 1.36029646e-02, -1.40184036e-03,
       6.04525814e-03, 1.17947673e-02, 2.10439339e-02, 1.64312366e-02,
       2.38135480e-03, 2.04029470e-03, -4.07744199e-03, 1.14061963e-02,
       1.20210061e-02, 9.91941523e-03, 4.61957864e-02, 1.74164679e-02,
       2.25010403e-02, 1.26047889e-02, -1.33918449e-02, -6.47574291e-03,
       1.31039340e-02, -1.02137150e-02, -2.18738307e-04, 2.16253828e-02,
       2.48723961e-02, 1.01081217e-02, 7.70191243e-03, -1.97371449e-02,
       1.24960830e-02, 4.41973237e-03, 9.82894562e-04, 9.72470734e-03,
       1.54869817e-02, 5.35514671e-03, -7.28932954e-03, -5.17626898e-03,
       -3.89466472e-02, -9.39098559e-03, -1.88595355e-02,
       -8.86083860e-03, -9.19905215e-05, 8.76652834e-04, 3.64334844e-02,
       2.09307484e-02, 2.68478580e-02, -5.08502079e-03, 1.30038867e-02,
       4.12177900e-03, -1.34246815e-02, -6.33129478e-03, 8.37345142e-03,
       3.53143848e-02, 1.60678197e-02, 1.45672355e-02, 2.57397373e-03,
       1.04621155e-02, -1.66300721e-02, -6.46855310e-03, -7.96004571e-03,
       2.08070651e-02, 4.92239837e-03, -1.61012635e-02, -1.73830520e-02,
       -3.43225040e-02, 5.82948269e-04, -9.61965881e-04, 5.93436533e-04,
       1.05903838e-02, 1.37682967e-02, 3.56059428e-03, 6.21627877e-03,
       -2.76022614e-03, -1.41900508e-02, -1.71415452e-02,
       -1.25879375e-02, 1.72361825e-02, -3.82501494e-05, 5.30976616e-03,
       1.90710612e-02, 1.31298555e-02, 2.26460304e-02, 3.06567247e-03,
       7.15454435e-03, -1.44767202e-03, -5.74229809e-04, 1.25272404e-02,
       1.66935809e-02, 3.41194831e-02, 3.30953263e-02, 1.46101676e-02,
       1.17667625e-02, -3.23430938e-03, -1.67054292e-02, -5.35322027e-03,
       2.34517604e-02, 4.06528339e-02, 8.27412659e-05, 2.96376110e-03,
       1.07520493e-02, -1.32601559e-02, 1.00736059e-02, -9.34938085e-04,
       -1.54819887e-03, -3.43179400e-03, -1.30929388e-02, 7.80838775e-03,
       5.38746780e-03, 9.93026327e-03, -5.48692327e-03, -4.04499471e-03,
       -5.17096929e-03, 2.34625023e-03, -6.03662047e-05, -3.10937152e-03,
       5.60836773e-03, 4.66820458e-03, 1.09265735e-02, 8.01455323e-03,
       5.10774972e-03, -3.80848674e-03, -8.22548475e-03, 2.01464128e-02,
       2.60293726e-02, -5.13511896e-03, -3.98941198e-03, 1.09425634e-02,
       -6.97577093e-03, -1.79527584e-03, 3.24576162e-03, 8.05931352e-03,
       1.76725201e-02, 1.21572372e-02, 1.78862065e-02, 1.16388919e-03,
       1.26515441e-02, -2.02468946e-03, -9.84613318e-03, -1.05088772e-02,
       8.70779902e-03, 1.22545986e-02, 2.74832454e-02, 1.67449061e-02,
       -7.00130174e-03, -6.80199731e-03, -1.48709426e-02,
       -1.35086207e-02, -3.64357751e-04, 1.31876124e-02, 7.51357060e-03,
       1.64348241e-02, 1.12689529e-02, 1.94548536e-02, 1.90987866e-02,
       -9.17755719e-03, -3.19025782e-03, 4.82437806e-03, 2.89643146e-02,
       1.35962320e-02, 2.66884714e-02, 2.07525175e-02, 1.33714546e-02,
       -3.81124765e-03, -9.46589094e-03, -1.95643138e-02, 1.84133332e-02,
       2.58370992e-02, 1.00259259e-02, 1.52766444e-02, 1.22168688e-02,
       -1.03983078e-02, -2.62791924e-02, -1.40194390e-02, 1.84622258e-02,
       9.08694603e-03, 7.21997395e-03, -8.01822916e-03, 1.92869660e-02,
       1.41744269e-02, 2.13746801e-02, -1.80589128e-02, -1.48629220e-02,
       2.54469505e-03, -1.23354960e-02, -1.35837011e-02, -8.79032910e-03,
       1.83464196e-02, 2.33532283e-02, -6.79628877e-03, -4.96985437e-03,
       4.81303874e-03, 1.94011964e-02, 2.18248535e-02, 1.51913902e-02,
       1.82684530e-02, 1.56396218e-02, 2.27931701e-02, 6.50776667e-04,
       -7.23814964e-03, -1.84400305e-02, 2.85499115e-02, 1.56623498e-02,
       1.02493921e-02, 2.82615777e-02, 1.88732855e-02, 1.55021260e-02,
       2.27740742e-02, -6.31786697e-03, -1.67945847e-02, -2.30627283e-02,
       -7.72389071e-03, -1.62974396e-03, 6.46030344e-03, 2.64130980e-02,
       -1.06641948e-02, 2.63515767e-02, 2.54915096e-03, 4.35398566e-03,
       -1.32379532e-02, -1.15607185e-02, -4.81166411e-03, 5.33035398e-03,
       3.57337017e-03, 2.26828512e-02, 1.75437722e-02, -4.37218882e-03,
       -2.28530876e-02, -1.64256357e-02, 2.46225372e-02, 2.48224791e-02,
       3.35723422e-02, 2.79513262e-02, 2.55564647e-03, 2.41768770e-02,
       3.43461754e-03, -7.64067331e-03, -6.51331898e-03, 7.67617719e-03,
       2.60317773e-02, 4.06873375e-02, 1.07348373e-04, -6.54886680e-05,
       2.81337313e-02, 2.18069628e-02, 1.75715201e-02, -1.02386707e-02,
       -6.27467781e-03, -5.27874194e-03, 1.42431364e-03, 1.72704682e-02,
       -1.25814695e-02, 1.52719459e-02, 1.92799922e-02, 9.47960187e-03,
       -3.72960442e-03, -5.16788801e-03, -2.51735318e-02,
       -9.23986640e-03, -1.58501614e-03, 3.85880447e-03, 4.03054431e-02,
       3.65706570e-02, 1.93338022e-02, -6.88832207e-03, 1.09053904e-03,
       1.83064304e-02, 2.38619242e-02, 1.56744644e-02, -2.06830502e-02,
       1.65783130e-02, 3.12594362e-02, 1.74499638e-02, -1.63064208e-02,
       -1.52354781e-02, 5.14018675e-03, -7.54511170e-03, 5.15021104e-03,
       3.46959159e-02, 1.00780157e-02, 1.99958105e-02, 2.77344994e-02,
       -2.24391813e-03, -1.15706753e-02, -1.99470366e-03, 6.31825766e-03,
       4.41181585e-02, 3.59736532e-02, 7.02139514e-04, -7.05292029e-03,
       1.26641206e-02, 2.19697924e-03, -1.49058653e-02, 1.10518020e-02,
       9.45144892e-03, 3.08945850e-02, 3.06473877e-02, 1.11484826e-02,
       2.70954799e-02, -2.16820510e-03, -2.78512910e-02, -1.53733781e-02,
       1.86675489e-02, 8.41819216e-03, 3.42322066e-02, 2.62162257e-02,
       -6.17640838e-03, -1.26688713e-02, -1.71725526e-02,
       -3.02582346e-02, 1.80239184e-03, 1.66410133e-02, 2.97305826e-03,
       1.69266909e-02, -7.67173944e-04, -4.59054625e-03, -7.98487570e-03,
       2.95986026e-03, 1.25868618e-02, -1.35638914e-03, 9.02869832e-03,
       1.78631209e-02, 1.46822380e-02, -1.24702947e-02, -9.35244467e-03,
       8.17460765e-04, 1.71759482e-02, 9.22880135e-03, 1.28218774e-02,
       8.34729336e-03, 7.77115254e-03, 3.87562992e-04, 1.58237964e-02,
       1.61465630e-02, 1.26857031e-02, -5.63506875e-03, -7.57273333e-03,
       1.38881747e-02, 8.81954841e-03, -3.87407345e-04, -5.04902750e-03,
       -2.67727720e-03, -1.59601530e-03, 2.17954293e-02, 1.72591012e-03,
       -1.22270267e-02, -1.69857626e-03, -3.20244161e-03,
       -8.65108054e-03, -1.05721904e-02, 2.59457938e-02, 1.06048398e-02,
       -6.17430871e-03, 2.84930971e-03, 1.02296798e-02, 1.84584316e-02,
       1.70020517e-02, 1.42980488e-02, 1.32099101e-02, 1.67378299e-02,
       5.03139850e-03, -1.14931748e-03, -1.62747819e-02, 1.82290245e-02,
       1.52765377e-03, 7.26499595e-03, 1.97931733e-02, 3.12977820e-03,
       -1.07935641e-03, -4.40317998e-03, 8.34905542e-04, -6.14608312e-03,
       1.69065353e-02, 5.64361271e-03, 4.56924643e-03, 8.59375950e-03,
       -5.55078674e-04, -4.98453947e-03, 4.11909167e-03, -6.50853943e-03,
       -1.02210026e-02, -3.53642204e-03, -1.20437797e-02,
       -1.07906219e-02, 1.10513940e-02, 1.41864317e-02, 5.79807954e-03,
       9.32597835e-03, 2.85601802e-03, 9.01330821e-03, 3.02918088e-02,
       -2.66838465e-02, 6.13373611e-03, 2.34369300e-02, -9.63259372e-04,
       1.23928385e-02, 3.36737446e-02, 7.49161001e-03, 1.55609446e-02,
       2.23068912e-02, -1.66204385e-02, -7.00853439e-03, 4.45628352e-03,
       -1.03312796e-02, 6.84632873e-03, 2.87015513e-02, -1.85989088e-03,
       -7.14168418e-03, 7.62906345e-03, -2.32226364e-02, -1.44812912e-02,
       -2.69263284e-03, 1.86686981e-02, 1.12571931e-02, 2.86037717e-02,
       -8.28363933e-03, 1.83349978e-02, 1.93180575e-03, -2.15465613e-02,
       8.80599301e-03, 4.39710828e-04, 2.69291624e-02, 3.05289496e-03,
       -8.43236165e-04, -7.44485948e-03, 5.94429532e-03, 5.56412479e-03,
       2.49300264e-02, 2.58989763e-02, 3.32100615e-02, -1.79932499e-03,
       3.16075818e-03, 1.32938288e-02, -6.67281961e-03, 3.40306736e-03,
       7.02353008e-03, 7.61874113e-03, 2.63721626e-02, 3.63318808e-02,
       1.59049630e-02, 4.01085429e-02, 2.62637679e-02, 5.79499174e-03,
       -6.93876471e-04, -1.76798850e-02, 1.54566420e-02, 2.20879633e-02,
       1.88666470e-02, 2.38012895e-02, 3.81874479e-02, 2.85172388e-02,
       5.71412081e-03, -1.08773960e-02, -3.40354606e-03, 1.89908998e-04,
       3.35274786e-02, 3.13982330e-02, 1.59558207e-02, 5.46345674e-03,
       5.45529043e-03, 1.22811063e-03, 2.07979009e-02, 3.62952575e-02,
       7.66574638e-03, 2.09816806e-02, 1.05415536e-02, 1.21250842e-02,
       -5.39565785e-03, -8.61356873e-03, 1.93181820e-02, 2.04594508e-02,
       2.66452897e-02, -3.00843455e-03, 1.69617478e-02, 5.20552229e-03,
       1.42646506e-02, 3.19009423e-02, 1.43615203e-02, 2.02114470e-02,
       2.57983766e-02, 2.34807767e-02, 2.79249437e-02, 2.02932134e-02,
       1.81779955e-02, 3.48063000e-02, 1.29965497e-02, -1.03638542e-03,
       2.61201523e-02, 1.82227157e-02, -3.26268049e-03, 8.92974529e-03,
       1.43403830e-02, 2.30233395e-03, 2.09335871e-02, 5.34074148e-03,
       1.90352723e-02, 2.47123800e-02, 1.59967486e-02, 1.64003018e-02,
       4.92708525e-03, 3.46417390e-02, 2.20631547e-02, 1.09439213e-02,
       1.95810255e-02, 2.83917673e-02, 2.08287220e-02, 5.37488936e-03,
       4.68662940e-03, 1.43489509e-04, 1.14145325e-02, 2.32935436e-02,
       9.46586300e-03, 1.00259157e-02, -7.07358704e-04, 2.60941945e-02,
       9.78113897e-03, 1.18630833e-03, 5.29273460e-03, 3.90509330e-02,
       1.76913682e-02, 2.51904633e-02, 2.05880310e-02, 2.30508205e-02,
       1.67139266e-02, 4.79840266e-04, -1.69287995e-03, -1.44423721e-02,
       1.54625503e-02, 9.37144365e-03, 1.39920590e-02, 3.43200229e-02,
       2.10267249e-02, 1.96657260e-03, -7.59574026e-03, -9.73990129e-04,
       3.21195228e-03, 5.43756317e-03, 4.82352404e-03, 3.24034132e-02,
       2.31247060e-02, 7.80821638e-03, -1.06130717e-02, -1.29517969e-02,
       1.65062007e-02, 1.79754160e-02, 3.79260723e-03, -1.29360547e-02,
       2.14076452e-02, 2.91332323e-02, 3.52308564e-02, 2.39298847e-02,
       1.20396295e-03, 8.35363008e-03, 2.31182436e-04, 7.67422549e-04,
       -3.31273605e-03, 1.17893210e-02, -6.12010807e-03, 1.52175557e-02,
       1.85449999e-02, -2.07900885e-03, 1.94867756e-02, 1.59863327e-02,
       3.30578606e-03, -2.12994423e-02, -2.37393230e-02, 2.51564868e-02,
       9.00947303e-03, 1.63761899e-02, -8.84141959e-03, 3.57095040e-02,
       1.78892892e-02, 3.20754456e-03, -1.47590721e-02, 2.00479236e-02,
       1.34605430e-02, 9.51751694e-03, 1.03339497e-02, -1.75211660e-03,
       -2.38919295e-02, -1.16922427e-02, -8.31438974e-03,
       -1.88483372e-02, 1.86775178e-02, -5.41978236e-03, 1.42417876e-02,
       1.46743152e-02, -1.21855736e-02, 2.82573961e-02, 4.11062688e-02,
       2.44487971e-02, 2.05326150e-03, -1.60998746e-03, -1.10880444e-02,
       1.81406364e-02, 1.16871623e-02, -3.04781906e-02, -1.98273305e-02,
       1.34228112e-03, 1.50884164e-03, -1.65622402e-03, 7.69419177e-03,
       -4.13383677e-05, 1.25123737e-02, 2.88944077e-02, 7.31509039e-03,
       3.28291650e-03, 5.35883103e-03, 7.48715596e-03, -1.28973303e-02,
       -1.71324948e-03, 2.00556987e-03, 1.80584304e-02, 1.23253139e-02,
       1.33521832e-03, -1.81768537e-02, -1.56372860e-02, 2.66143961e-05,
       2.34678444e-02, 1.38865551e-02, 1.25303082e-02, 1.89668834e-02,
       3.37818228e-02, -5.58396382e-03, 9.50252404e-04, 1.42628523e-02,
       7.58919446e-03, -2.09372235e-03, 2.89419219e-02, 2.54700836e-02,
       1.44539541e-02, 6.02953648e-03, 1.07621169e-03, 3.41764098e-04,
       1.96011197e-02, 5.66847669e-03, 7.86118675e-04, 3.25422026e-02,
       -2.52446393e-03, 1.83061825e-03, -6.66630862e-04, -3.65996151e-03,
       6.34122349e-04, -1.70030317e-03, -1.78795622e-03, 1.51041262e-02,
       2.67619900e-02, -7.01009482e-03, 8.34774319e-03, 2.92165298e-03,
       1.77263608e-03, 2.98002502e-03, 2.93973438e-03, 3.44428159e-02,
       2.86899004e-02, 2.34909486e-02, 1.95239799e-03, -1.24383513e-02,
       -1.07047437e-02, -1.55190974e-05, 2.26682182e-02, 3.20073366e-02,
       6.97320094e-03, -2.82580336e-03, 2.33276971e-02, -8.03733617e-03,
       -8.38099420e-03, -3.52179515e-03, -1.64437313e-02, 8.54746532e-03,
       2.07108376e-03, 2.49338895e-02, 4.67706751e-03, 1.29954482e-03,
       2.99685780e-04, 2.02405006e-02, -8.02091017e-05, -1.19178826e-02,
       -2.98232716e-02, 5.80461370e-03, 3.59807611e-02, 2.02769022e-02,
       1.30884377e-02, 1.46872504e-02, 1.39584029e-02, -5.96250128e-03,
       -1.30906031e-02, -1.94857027e-02, 1.87423006e-02, 3.17141004e-02,
       1.67806875e-02, 6.05300907e-03, 9.94976889e-03, 1.71027035e-02,
       -4.49968409e-03, -2.74844319e-02, 1.29265245e-02, 2.81052897e-04,
       2.63417419e-02, 2.58880388e-02, 6.37237867e-03, 1.10798739e-02,
       1.92626752e-02, 2.30145711e-03, -1.94831900e-02, 1.03823990e-02,
       1.26292165e-02, 8.93781800e-03, 2.12117122e-03, 9.72492434e-03,
       2.60562468e-02, 9.97843407e-03, 1.19218240e-02, -8.60800780e-03,
       -4.30993317e-03, 6.03876403e-03, 1.23611959e-02, 1.33662354e-02,
       5.18383877e-03, -1.26591865e-02, -1.19349314e-03, -1.02432752e-02,
       -3.04444153e-02, 1.09591959e-02, 2.43708901e-02, 1.28345992e-02,
       2.57113334e-02, 4.29865997e-03, 3.79667953e-02, 1.92684215e-02,
       1.24548618e-02, -1.38305416e-02, -2.58487486e-03, -1.96635374e-03,
       7.48818787e-03, 5.15926804e-04, 3.38652804e-02, 2.45805494e-02,
       5.22135431e-03, -4.68096649e-03, -3.22044380e-02, 2.75546990e-05,
       3.56798880e-02, -1.23548147e-03, 1.47825796e-02, 2.71691438e-02,
       -4.37927200e-03, 2.08486039e-02, -1.48894859e-03, -1.34069975e-02,
       3.97774827e-04, 3.00234128e-02, 2.43386626e-02, 3.35278362e-02,
       2.07977612e-02, -4.75083152e-03, 2.98791006e-02, 6.17882702e-03,
       -6.94145681e-03, -1.21218264e-02, 6.96723163e-03, 1.46066202e-02,
       3.56309637e-02, 8.08348972e-03, 3.46598253e-02, 1.12460321e-02,
       2.89485045e-03, 1.42569002e-03, -3.69305781e-04, 1.34610180e-02,
       5.43911810e-05, 1.43704107e-02, 4.04896811e-02, 2.58409772e-02,
       1.07578356e-02, -1.29400787e-03, -1.10737151e-02, -4.44173925e-02,
       -1.99583862e-02, -1.52091067e-02, 9.09696275e-04, 3.02754343e-02,
       3.55025404e-03, 3.91366594e-02, 3.63931879e-02, 1.00389468e-02,
       2.74520111e-03, 1.45177329e-02, 2.65780091e-02, 2.62111165e-02,
       1.32321119e-02, -2.39425115e-02, 7.94991758e-03, 2.46091038e-02,
       1.27369221e-02, -5.16022043e-03, -3.73734930e-03, 1.10000493e-02,
       -7.91231694e-04, -4.58153337e-03, 1.00893201e-02, 1.26412380e-02,
       1.46934176e-02, 7.31239747e-03, -1.35360388e-02, -9.67309228e-04,
       -1.33256065e-02, 4.70541371e-03, 1.31970402e-02, -2.56051049e-02,
       -1.75128400e-03, -1.84721674e-03, -7.89004751e-03, 4.83803358e-03,
       8.28334782e-03, -1.52057726e-02, -8.26593861e-03, -1.19131794e-02,
       -1.72910828e-03, 2.88676913e-03, 6.32605702e-03, -1.45669263e-02,
       -2.35655848e-02, 6.02084212e-03, 2.97031961e-02, 5.11865364e-03,
       1.47810904e-02, 1.10718543e-02, -7.15226447e-03, -2.99970969e-03,
       -1.66618023e-02, -1.52902561e-03, 1.68737378e-02, 2.30205227e-02,
       -2.48668226e-03, 1.74213331e-02, -9.85552929e-03, 7.71906087e-03,
       -1.51728913e-02, -3.41745466e-02, 1.17443381e-02, 3.68868187e-02,
       2.01145653e-02, 1.84427015e-03, -1.20140752e-03, 1.32896705e-02,
       1.63999200e-02, 1.99097637e-02, 8.96640960e-03, 6.54223561e-03,
       1.60342008e-02, 2.99401153e-02, 3.27849272e-03, 3.61981392e-02,
       1.79934744e-02, 1.04124919e-02, 8.27808678e-03, -9.84324049e-03,
       -4.15778253e-03, 7.74018886e-03, 4.68738982e-03, -2.98378919e-03,
       2.43585445e-02, 2.89298524e-03, 1.08272629e-02, 2.31153751e-03,
       -1.42298620e-02, -2.19353102e-02, -6.48539606e-03,
       -9.58177913e-03, -1.15111712e-02, 4.14562225e-03, 3.64154726e-02,
       3.03808693e-02, 3.82843763e-02, 1.42887300e-02, 1.37166278e-02,
       3.23272450e-03, -4.26638313e-03, -7.55771203e-03, 5.00162765e-02,
       3.15237641e-02, 1.73182040e-02, 9.69242305e-03, -9.02574230e-03,
       7.04436330e-03, -1.77631378e-02, -7.16909999e-03, -1.33934887e-02,
       1.71320532e-02, -1.19917281e-02, -1.03582842e-02, -5.39744226e-03,
       -1.12331724e-02, 5.77667356e-03, 7.35362805e-03, 4.14536754e-03,
       7.29510281e-03, -6.29134756e-03, -1.39779570e-02, 1.75484549e-03,
       -6.77711330e-04, -1.26565630e-02, 3.69464210e-03, 1.02999052e-02,
       1.76097602e-02, 1.19940257e-02, 3.86110414e-03, 2.36854237e-02,
       2.20633689e-02, 1.56873595e-02, 4.24963562e-03, 1.53349675e-02,
       3.70913791e-03, 1.24433823e-02, 9.59854573e-03, 3.81721254e-03,
       1.91422142e-02, 4.23280150e-03, -3.94995604e-03, -2.80993874e-03,
       1.50279712e-03, 2.07209662e-02, 9.30706691e-03, 1.77068841e-02,
       2.03328319e-02, -8.32374673e-03, -2.36599450e-03, -1.68623719e-02,
       -1.57514308e-02, 3.98452207e-03, 3.04149208e-03, 4.29910002e-03,
       2.61409837e-03, 7.16257747e-03, -6.07473776e-03, -1.19574356e-03,
       -9.84419975e-03, 1.82809145e-03, 2.47008651e-02, -7.98680179e-04,
       -3.23983445e-03, -2.27463432e-04, 5.17286407e-03, 5.98003995e-03,
       -3.82456533e-03, -6.55581569e-03, -9.53638274e-03, 7.39460299e-03,
       3.07602584e-02, 1.16125084e-02, 7.12510804e-03, 2.18797680e-02,
       6.92777988e-03, -3.07484320e-03, -2.99685374e-02, 1.51549652e-03,
       3.88468467e-02, 6.59140060e-03, -5.94020355e-03, 3.92380683e-03,
       1.69794746e-02, 2.35728268e-02, 2.07469482e-02, 4.17151395e-03,
       -8.74321349e-03, -8.95376969e-03, 2.74090115e-02, 1.50382221e-02,
       -8.97257961e-03, 1.64283030e-02, 3.89336683e-02, 1.91940591e-02,
       -1.69636460e-03, -1.47708571e-02, -1.22506218e-02, 1.03517491e-02,
       2.71481313e-02, 1.82554368e-02, 1.60273798e-02, 1.15028415e-02,
       -2.11465731e-03, -1.18482439e-02, 4.06541658e-04, 1.02012567e-02,
       3.75567190e-02, 1.64586585e-02, -1.36396503e-02, 1.83560196e-02,
       2.39803903e-02, 3.28983627e-02, 9.65757016e-03, 1.01025971e-02,
       -7.61473377e-04, 2.19300073e-02, 4.19707187e-02, 1.86937246e-02,
       2.78804619e-02, 3.04923635e-02, 2.87550362e-03, 1.92038342e-03,
       8.73709470e-03, -3.93195311e-03, 8.65586940e-03, 2.00614147e-02,
       2.07119696e-02, 3.41201052e-02, 4.59724525e-03, -8.82003049e-04,
       1.66591741e-02, 4.23802389e-03, -1.06572807e-02, -6.07813057e-03,
       6.40463317e-03, 6.67096488e-03, 1.13603352e-02, 1.28555605e-02,
       3.45802605e-02, 3.37004513e-02, 2.74304114e-02, 1.77312212e-03,
       1.13080097e-02, 2.87762564e-02, 1.93540882e-02, 2.24847533e-02,
       1.32768294e-02, 4.13122326e-02, 3.01362928e-02, -1.03487796e-03,
       -2.73365546e-02, -4.94051725e-03, -2.44282302e-03, 1.06462622e-02,
       2.12850906e-02, 6.10565068e-03, -1.14372862e-03, 1.20267086e-02,
       5.82616217e-03, 1.41661882e-03, 6.16154226e-04, 2.60478575e-02,
       1.17245251e-02, 2.95015052e-02, 1.83685720e-02, 5.42033510e-03,
       4.97614127e-03, 6.18447084e-03, 3.75323906e-03, -6.81014312e-03,
       3.39332223e-02, 3.48855834e-03, 7.46160420e-03, 2.18376741e-02,
       4.28072587e-02, 1.74425840e-02, -1.08525576e-02, 2.54657562e-03,
       1.45805357e-02, 1.97468773e-02, 2.17870194e-02, 3.30980569e-02,
       2.02159807e-02, 2.01556906e-02, 7.63793150e-03, -1.96148045e-02,
       -2.19634920e-02, 5.12256473e-03, 1.34094339e-02, -2.02113972e-03,
       1.14810895e-02, 3.48704085e-02, 1.96845438e-02, -4.27406412e-05,
       -1.30525632e-02, -2.14224169e-03, -1.11992108e-02, 2.15899181e-02,
       1.21913366e-02, 1.60542782e-02, 7.26661831e-03, 3.20180610e-04,
       9.48333275e-03, -6.92534819e-03, 1.05067259e-02, 2.83535421e-02,
       1.10455835e-02, -3.97470919e-03, 8.68272595e-03, 3.82619090e-02,
       1.74871879e-03, -1.10672209e-02, -3.60340998e-02, -2.77393162e-02,
       -6.19549444e-03, 7.93911889e-03, 1.06746266e-02, 2.79458985e-02,
       1.64757818e-02, 3.62936687e-03, -1.40356598e-02, -9.34591796e-03,
       -1.13944663e-03, 2.90130246e-02, 1.48190903e-02, 2.63944212e-02,
       4.44759242e-02, -8.06064717e-03, -2.91911582e-03, 1.27377268e-02,
       -3.22293537e-03, -1.53452149e-02, 2.44095773e-02, 1.90970153e-02,
       1.29786497e-02, 5.61118731e-03, -2.40072096e-03, 2.69569829e-02,
       1.43082598e-02, -2.34692320e-02, -5.06390780e-02, -2.23684181e-02,
       4.95999877e-04, -1.01202657e-03, 1.62149668e-02, 1.03070727e-02,
       -8.15747119e-03, -1.57091650e-03, 1.11437794e-02, 1.17148120e-04,
       2.35169046e-02, 3.99366170e-02, 3.73665132e-02, 5.20935170e-02,
       2.59231646e-02, -1.18308961e-02, -2.36442243e-03, -1.82089824e-02,
       -3.63715887e-02, -1.27411755e-02, 2.18831431e-02, 1.95331760e-02,
       5.69012053e-02, 2.44840384e-02, 2.91223954e-02, 3.68552729e-02,
       -8.50463845e-03, -2.34161410e-02, -8.76274053e-03, 3.09443194e-03,
       -1.24948379e-02, 3.49997915e-02, 2.02942323e-02, 4.66519082e-03,
       8.01401120e-03, -8.20724387e-03, -1.34141082e-02, 1.34927483e-04,
       1.51932770e-02, 6.85722614e-03, 2.90936101e-02, 3.41865756e-02,
       9.11819935e-03, 2.29479671e-02, -1.21901063e-02, -1.42932953e-02,
       -9.69308522e-03, 1.07307620e-02, 2.52037402e-02, 6.93046972e-02,
       2.38256566e-02, 2.72398423e-02, 1.46683296e-02, -8.37198086e-03,
       5.98472543e-03, -1.14342254e-02, 4.38275887e-03, 4.90318332e-03,
       3.96995991e-02, -1.25567019e-02, -7.00263074e-03, -7.20014935e-03,
       -2.67217821e-03, 1.48575567e-02, 2.65399367e-02, 2.82593258e-02,
       1.53570510e-02, 9.00722109e-03, -4.56299586e-03, 3.94831412e-03,
       3.13460454e-03, -2.02860497e-02, -8.78582057e-03, 2.18739919e-02,
       5.50708212e-02, 1.30676152e-02, 5.36300614e-03, 7.36708939e-03,
       1.97874550e-02, -2.69279839e-03, 3.12077394e-03, 2.31095888e-02,
       2.14504134e-02, 1.55031942e-02, 2.25296132e-02, 2.21784860e-02,
       -1.41375298e-02, 1.52624666e-03, 4.47183964e-04, -3.18209711e-03,
       -1.40614370e-02, 8.44265800e-03, 3.27031016e-02, 9.26094037e-03,
       9.43485741e-03, 4.77658445e-03, 2.67527555e-03, 1.46495248e-03,
       -1.74576249e-02, 7.54258037e-03, 1.81573685e-02, 4.52413075e-02,
       1.74146928e-02, 2.71504978e-03, -5.18394774e-03, -1.55286270e-03,
       1.21534690e-02, -5.27758896e-03, 3.24988998e-02, 1.91600155e-02,
       1.28398063e-02, 9.94974561e-03, 1.20246122e-02, -7.08809763e-04,
       -2.17226688e-02, -8.25744122e-03, -2.92317495e-02,
       -3.58922333e-02, 1.64734982e-02, 3.44793089e-02, 2.01400340e-04,
       9.57220048e-03, 1.63506093e-06, 1.09711550e-02, 5.55865420e-03,
       -1.20564122e-02, -5.45897800e-03, 4.63246629e-02, 4.60946895e-02,
       2.03425530e-02, -9.21750627e-03, 6.10231468e-03, 1.06768298e-03,
       1.73114631e-02, -2.15247375e-04, 1.59421600e-02, -2.01701652e-03,
       7.42666831e-04, -1.02184108e-03, 2.47402675e-02, 3.48603958e-03,
       3.17496993e-03, 1.76441495e-03, -3.22156698e-02, 1.30748414e-02,
       4.07867786e-03, -3.95724876e-03, 5.45953959e-03, 7.92323053e-03,
       -7.28906225e-03, 2.52250228e-02, 1.83253363e-02, -1.24784736e-02,
       3.67902964e-03, 1.40854642e-02, 1.66383516e-02, 5.11959661e-03,
       -1.33223962e-02, -2.02358663e-02, 1.27304280e-02, -1.49140449e-03,
       -3.21083218e-02, -1.54024800e-02, 5.38685545e-03, 2.70531289e-02,
       -6.22834265e-03, -2.90586613e-02, 3.75846773e-02, 1.79505441e-02,
       1.97672192e-02, 4.13736375e-03, 1.64245199e-02, 7.44740479e-03,
       5.14937844e-03, 2.26345118e-02, 4.23973761e-02, 3.89539264e-02,
       1.92588964e-03, -4.54676058e-03, 1.22482365e-03, -3.58885936e-02,
       -2.22262833e-02, -2.08474658e-02, 6.29412616e-03, 2.73589846e-02,
       9.81710502e-04, 3.32256197e-03, -8.10031034e-03, -2.17363928e-02,
       -1.75389613e-03, 1.44768190e-02, 4.75580618e-02, 2.07047686e-02,
       -5.28629520e-04, 6.60960283e-03, -1.88277159e-02, -3.24374177e-02,
       -2.84952447e-02, -3.18396017e-02, -3.18785682e-02, 3.74629349e-03,
       1.46105671e-02, -1.03737460e-04, 1.72403585e-02, 1.11448234e-02,
       1.67937018e-02, 1.52134625e-02, -6.28990028e-03, -1.68713126e-02,
       2.80970824e-03, 1.63829736e-02, 7.14847818e-03, -1.24805840e-02,
       1.79321319e-02, -1.76163099e-04, -2.14646831e-02, 1.33601828e-02,
       -4.37726546e-03, 1.38956131e-02, 1.52513850e-02, -1.00040538e-02,
       1.87600534e-02, 2.09731888e-02, 4.29375004e-03, -3.05379601e-03,
       -9.18962341e-03, -3.48152518e-02, 8.76529887e-03, 2.18724180e-02,
       7.93510769e-03, 9.82215907e-03, 4.42820862e-02, 1.47104328e-02,
       -1.72930155e-02, -4.38408852e-02, -3.81113328e-02, 4.30710427e-03,
       7.00846314e-03, -8.57557449e-03, 2.83938134e-03, 2.11482272e-02,
       -1.97086949e-03, -4.41235825e-02, 1.35237966e-02, 1.40616819e-02,
       2.60654893e-02, 1.22821648e-02, 1.32773351e-03, 3.12445685e-02,
       3.88391167e-02, 3.46554294e-02, -5.42812468e-03, 3.30569707e-02,
       1.31445169e-03, 2.89271958e-02, 1.78042650e-02, 3.30885909e-02,
       1.40017299e-02, 3.78343053e-02, 1.13253184e-02, -4.68407795e-02,
       -2.15163138e-02, -2.91039348e-02, 5.07117016e-03, 4.74611577e-03,
       -1.02843260e-02, 1.65789910e-02, 5.02639487e-02, 1.19413640e-02,
       -2.47947127e-02, 1.21306218e-02, -1.24211656e-02, 2.72295419e-02,
       1.12320269e-02, 1.22202132e-02, 2.89634503e-02, 3.76435332e-02,
       4.81928587e-02, 1.34229483e-02, 2.25771405e-02, -8.25014431e-03,
       1.87235815e-03, 4.28055367e-03, 3.12021915e-02, 1.76222660e-02,
       2.05326942e-03, 1.73158273e-02, -2.24540289e-03, 6.73306407e-03,
       -1.76227484e-02, -2.85906019e-03, 9.87111963e-03, 1.29782478e-03,
       -1.39435967e-02, 4.13292497e-02, 2.19287910e-02, 1.22809829e-02,
       1.27899414e-02, 1.46547123e-03, 5.71541162e-03, 5.94915310e-03,
       -1.66403444e-03, -2.29605958e-02, -2.47644261e-03, 6.25961414e-03,
       2.24699415e-02, 1.21592479e-02, -8.57087877e-03, -3.23851523e-03,
       7.99600128e-03, -8.91662668e-03, 3.33440187e-03, -3.63662932e-03,
       4.46712103e-04, 9.42002237e-03, 1.24603305e-02, -7.02762650e-03,
       2.29042321e-02, 1.94683336e-02, -1.25149703e-02, -3.73335346e-03,
       5.49282832e-03, -1.88081805e-02, -2.01990502e-03, -3.28213093e-03,
       8.64848867e-03, 3.90559481e-03, -7.65869336e-04, -1.00590698e-02,
       -6.68959413e-03, 5.18301083e-03, 4.82112495e-03, 1.68219171e-02,
       2.27949228e-02, 2.60980939e-03, 2.82179117e-02, 3.74798141e-02,
       6.33569714e-03, 1.22453980e-02, 1.03898775e-02, -8.66821501e-03,
       3.23353219e-03, 2.64583472e-02, 1.80227589e-02, 8.23230669e-03,
       1.38375480e-02, 2.14545783e-02, -1.23181008e-02, -9.01166070e-03,
       -1.21125318e-02, 4.79215028e-04, 5.73030626e-03, 1.86471231e-02,
       4.10965225e-03, -3.00410390e-03, -3.40312277e-03, -4.06326354e-03,
       -4.37997421e-03, -2.78496780e-02, 6.37187297e-03, 4.85389382e-02,
       -4.02626814e-03, -4.74626711e-03, 1.20457262e-02, 8.06828868e-03,
       2.32222653e-03, 7.08533311e-03, -1.27550643e-02, -3.40908347e-03,
       2.30978448e-02, 2.01828200e-02, -3.73031013e-03, -1.97691238e-03,
       1.23231756e-02, -1.57805029e-02, 1.78796872e-02, -1.49807949e-02,
       4.43100976e-03, 4.38094065e-02, 1.10243382e-02, 3.05171274e-02,
       3.20963375e-02, -1.39210653e-03, -3.51155496e+00 ]
